{"Config":{"Inputs":8,"Layout":[4,4,1],"Activation":1,"Mode":3,"Loss":2,"Bias":true},"Weights":[[[0.44775735779994513,-0.0008237707793025083,-0.023048397887205047,-0.1269470241809389,-0.00287166752923302,0.004439962272908467,0.13047402917195358,0.005978649157452804,-0.1387604748141514],[-0.011252836903285343,-0.1812468499121151,-0.034871223234297005,0.5733924647982455,0.2676011598609338,0.0010561905842193025,0.799306489253744,-0.10290182986412971,-0.0817220967184628],[-0.5072213648655041,-8.152195568235223,0.0024011836027650387,0.0003625630418310466,0.02299317507862077,0.006781658557609299,1.9932120844888537,-0.052285441298590765,0.03950098974056964],[0.11473783899761789,0.005162895352571004,0.003280921217877408,-0.9493090876305244,0.008530367549655374,0.010068460815972994,0.33494524130067416,0.7411083612513586,-0.000029666339549431076]],[[0.01277154689225213,0.10666059300006969,-0.021422115793114968,-0.005481379537629229,-0.007772780563574032],[-0.0020159086021331258,0.00038221826593386865,0.001746663146884994,0.03291963765073491,-0.012004594276214853],[-0.02201095660633431,-0.13622152843593544,0.007637215910200243,0.07463713056588173,0.011677061151608291],[-11.02963833019735,0.018305768073236594,1.4471934844213308,-0.04494916616804405,1.1805416778763949]],[[0.0067179472214170385,-0.0005298844785002849,-0.0080982358677764,0.5203819084087148,-0.02897613503457497]]]}