{"Config":{"Inputs":8,"Layout":[4,4,1],"Activation":1,"Mode":3,"Loss":2,"Bias":true},"Weights":[[[0.4886495782469408,-0.0008237707793025083,-0.023048397887205047,-0.11402967859685853,-0.0026364729549975827,0.004529676297950995,0.11418351394486749,0.005978649157452804,-0.1485855081785782],[-0.011252836903285343,-0.1812468499121151,-0.034871223234297005,0.5733924647982455,0.279023300917821,0.0010583745631375851,0.799306489253744,-0.10290182986412971,-0.08422759365176051],[-0.48058815480560413,-8.076591817435467,0.0024011836027650387,0.00033370647757622734,0.02409263913746883,0.007161597719157886,1.9932120844888537,-0.04980054838982328,0.03950098974056964],[0.11473783899761789,0.004771673959880878,0.003280921217877408,-0.9493090876305244,0.009152622240895674,0.010068460815972994,0.33494524130067416,0.7411083612513586,-0.00002712703974542552]],[[0.01277154689225213,0.10990420867149837,-0.02055909364995395,-0.00519453093077495,-0.007772780563574032],[-0.0020161419694242435,0.00038221826593386865,0.001719952572343416,0.03291963765073491,-0.012004594276214853],[-0.020047907139183953,-0.13622152843593544,0.007849883607344536,0.0777605112702106,0.011677061151608291],[-11.02963833019735,0.018305768073236594,1.424062821353504,-0.04606681814013145,1.1805416778763949]],[[0.0067179472214170385,-0.0005298844785002849,-0.0080982358677764,0.5491187354897187,-0.02673685305387637]]]}