{"Config":{"Inputs":8,"Layout":[4,4,1],"Activation":1,"Mode":3,"Loss":2,"Bias":true},"Weights":[[[3.8429304273932003,-0.0476873010692343,-0.042813372765009,-0.027195419966814443,-0.01917597099271781,0.08403137309008422,-0.12563959584844767,-0.012937658684852294,-2.3839168557365285],[0.07421144137235518,0.2877243323806314,-1.0188808927338584,-0.28479092810193596,-1.472418288473113,-0.012821622203711221,0.5165429228936325,0.1950008784169373,0.5471516112842824],[-0.542197431652249,-0.6817284331195599,0.042274967971417686,0.0130951825940211,-0.022208367879987468,-0.3253911527797506,-7.525569129398361,0.011404791808572136,-0.033437093789890134],[0.766027009404753,-0.019239507737690394,-0.2698886803021799,0.8427841582545889,-0.020332952935484067,0.15687520213607326,-0.15277453604510033,3.0725397575463034,-0.0019269872414557686]],[[0.2065694584212668,0.4075733606656314,-0.21010198244414077,0.10064362481931453,-0.02494415079822837],[-0.010744849631946106,0.013292362945714214,0.03944023839942499,-0.08284968178181802,0.04158940553078254],[0.4219269406361449,-0.10142009993699978,0.18365926099534152,-0.054417030918239816,-0.03806556198732317],[-33.41528003983948,0.09812982629938688,0.6629912606828897,-0.4554983492258217,-0.30073139513553176]],[[0.07239181721231913,0.07734761713379477,-0.027968559768899646,9.972959611530925,-0.14289350279496774]]]}