{"Config":{"Inputs":8,"Layout":[4,4,1],"Activation":1,"Mode":3,"Loss":2,"Bias":true},"Weights":[[[3.353963976188064,-0.05365247409856289,-0.04808480565731329,-0.027568225681733154,-0.01564035073847741,0.08821444084140889,-0.12366496221101103,-0.008558721431937389,-2.4247513856326153],[0.0670664649591847,0.29483997047885796,-1.2093282058486419,-0.33780553434836685,-1.3192677577368743,-0.016429674186074814,0.4347077127619468,0.18821272980001322,0.5960824325994154],[-0.38188698184207925,-0.8164018775561723,0.030798443959040214,0.011583874539156115,-0.03186337572418901,-0.35090835127039643,-7.063798581508287,0.010269099014485807,-0.04435326354773515],[0.8869039484077678,-0.021118491191695392,-0.25667254085178265,1.212373730039176,-0.015384181402668866,0.12814535481804726,-0.18070254678273728,3.389035839267401,-0.0013983575836569457]],[[0.20277042353339514,0.4543690007356048,-0.16745741556002955,0.14205066872703936,-0.024450626731910483],[-0.009928940746950549,0.010169661035878162,0.041481216777030046,-0.10088925631707424,0.043972644465377395],[0.7143986039536988,-0.08177069291307179,0.1513846166985176,-0.053680347412461416,-0.04223668680910179],[-40.373993825295145,0.07696060415601112,0.7842128697517039,-0.4653649813494124,-0.30530099037467345]],[[0.08778014383732692,0.08452402379094634,-0.03246638054935485,12.537837194897264,-0.12291373845857113]]]}