{"Config":{"Inputs":8,"Layout":[4,4,1],"Activation":1,"Mode":3,"Loss":2,"Bias":true},"Weights":[[[0.41615197344140314,-0.0009430079813476928,-0.014942319297039802,-0.05364387841477468,-0.0018595785571378998,0.007324679876910555,0.047310140402017316,0.0032736794447033074,0.1644325875399545],[0.003975878597787062,-0.12940650821000635,0.09567448286938937,0.9933993248093584,-0.3723297699325318,0.0012775030416484056,-0.4501778890395191,-0.031044302879145117,-0.08053904837437105],[0.6074358982172602,-22.696506154332216,-0.002912799216356089,-0.0003766825604219994,0.029771791138340192,0.03276338480082662,0.36460171001283576,-0.062308274081532805,-0.03706113715097302],[0.1279303873149542,-0.007541743232329902,0.0026026569566138563,-0.6896861542580474,0.022568471520687985,-0.022182717095910957,0.4368641152733747,0.5257989279002087,-0.00006179558419926408]],[[0.011183983799453318,0.13312439699118156,-0.052300423417438034,0.027702304875210717,-0.00635429177927211],[0.00034436444559384464,0.0002752436286567938,-0.0008024330233286639,-0.04401052830515651,0.01425805285307848],[-0.05487906234476758,-0.07191210255675543,0.0065147090806034645,0.07518450297043482,-0.034124020923900676],[9.231083193584078,-0.014277378471716503,-2.101965827622234,-0.0948606988468259,-1.015844812017808]],[[-0.008116556238744436,-0.0006576529039295847,0.030660924872865165,-0.28100923961951535,0.07921788722778451]]]}