{"Config":{"Inputs":8,"Layout":[4,4,1],"Activation":1,"Mode":3,"Loss":2,"Bias":true},"Weights":[[[0.44775735779994513,-0.0008475429907433529,-0.024225089186447585,-0.11744861976823749,-0.002622863245568625,0.004439962272908467,0.11987575225294221,0.005978649157452804,-0.1387604748141514],[-0.011252836903285343,-0.1812468499121151,-0.035219603658603445,0.5986337971738339,0.2676011598609338,0.0010583745631375851,0.8579131928067176,-0.10624448510000828,-0.0817220967184628],[-0.5174841646803212,-8.076591817435467,0.0024011836027650387,0.0003368579394380426,0.02521002258992105,0.007161597719157886,1.9932120844888537,-0.052285441298590765,0.03950098974056964],[0.11473783899761789,0.005162895352571004,0.003280921217877408,-0.9493090876305244,0.009152622240895674,0.010068460815972994,0.353921575842913,0.7411083612513586,-0.000029666339549431076]],[[0.01277154689225213,0.10946660197786914,-0.02055909364995395,-0.005481379537629229,-0.007772780563574032],[-0.0018841726658207318,0.00035599530759792435,0.001746663146884994,0.03291963765073491,-0.012004594276214853],[-0.022102807473861497,-0.13582955312250486,0.008024126538377295,0.07463713056588173,0.012630845717219764],[-11.753770602451905,0.018305768073236594,1.4471934844213308,-0.04494916616804405,1.1805416778763949]],[[0.0067179472214170385,-0.0005298844785002849,-0.0080982358677764,0.5491187354897187,-0.026540397420942045]]]}